Experiment	bias spectroscopy	
Saved Date	07.11.2019 10:38:07	
User		
Date		
X (m)	5.00662E-6	
Y (m)	-1.38228E-6	
Z (m)	-79.2844E-9	
Z offset (m)	0E+0	
Settling time (s)	200E-6	
Integration time (s)	100E-6	
Z-Ctrl hold	TRUE	
Final Z (m)	N/A	
Start time	07.11.2019 10:37:34	
Filter type	None	
Order		
Cutoff frq		

[DATA]
Bias calc (V)	OC D1 Amplitude (m)	OC M1 Freq. Shift (Hz)	OC D1 Amplitude [bwd] (m)	OC M1 Freq. Shift [bwd] (Hz)
-1.0000000E+0	8.8909999E-9	-106.41389E+0	8.5134744E-9	-89.936272E+0
-992.15686E-3	8.8597929E-9	-106.69543E+0	8.5326235E-9	-91.275291E+0
-984.31373E-3	8.8317016E-9	-107.76824E+0	8.5459231E-9	-91.474945E+0
-976.47059E-3	8.8097316E-9	-105.92728E+0	8.5648715E-9	-93.908104E+0
-968.62745E-3	8.7967047E-9	-98.832649E+0	8.5823704E-9	-98.101082E+0
-960.78432E-3	8.7871790E-9	-98.440849E+0	8.5996295E-9	-97.752281E+0
-952.94118E-3	8.7720862E-9	-99.048065E+0	8.6169170E-9	-91.950188E+0
-945.09804E-3	8.7616758E-9	-98.196747E+0	8.6430383E-9	-88.931435E+0
-937.25491E-3	8.7482181E-9	-96.622459E+0	8.6608951E-9	-84.691360E+0
-929.41177E-3	8.7408871E-9	-97.786842E+0	8.6825995E-9	-90.863518E+0
-921.56863E-3	8.7287422E-9	-96.032959E+0	8.7084713E-9	-96.054665E+0
-913.72550E-3	8.7204022E-9	-94.961021E+0	8.7400780E-9	-88.481232E+0
-905.88236E-3	8.7053378E-9	-98.213600E+0	8.7629859E-9	-90.075096E+0
-898.03922E-3	8.6911642E-9	-95.475914E+0	8.7869791E-9	-90.710114E+0
-890.19608E-3	8.6763423E-9	-95.273827E+0	8.8095762E-9	-92.831665E+0
-882.35295E-3	8.6633429E-9	-94.048546E+0	8.8306420E-9	-88.189568E+0
-874.50981E-3	8.6546770E-9	-93.912193E+0	8.8494865E-9	-85.488220E+0
-866.66667E-3	8.6488035E-9	-91.347870E+0	8.8736645E-9	-86.307793E+0
-858.82354E-3	8.6496712E-9	-91.734619E+0	8.9012255E-9	-89.675789E+0
-850.98040E-3	8.6458609E-9	-91.222992E+0	8.9216599E-9	-84.199005E+0
-843.13726E-3	8.6389740E-9	-89.197464E+0	8.9384189E-9	-84.548347E+0
-835.29413E-3	8.6318419E-9	-88.603287E+0	8.9552650E-9	-84.712395E+0
-827.45099E-3	8.6208392E-9	-84.569939E+0	8.9767296E-9	-82.678368E+0
-819.60785E-3	8.6186871E-9	-85.930771E+0	9.0022372E-9	-81.161674E+0
-811.76472E-3	8.6102760E-9	-83.790619E+0	9.0211607E-9	-75.212013E+0
-803.92158E-3	8.5990601E-9	-81.305267E+0	9.0325587E-9	-74.870918E+0
-796.07844E-3	8.5980130E-9	-82.324799E+0	9.0444141E-9	-76.782616E+0
-788.23531E-3	8.5929841E-9	-82.950867E+0	9.0509857E-9	-75.861076E+0
-780.39217E-3	8.5929068E-9	-78.199921E+0	9.0616528E-9	-79.881157E+0
-772.54903E-3	8.5960092E-9	-80.033592E+0	9.0699208E-9	-79.590477E+0
-764.70590E-3	8.5875991E-9	-84.050896E+0	9.0797654E-9	-77.004692E+0
-756.86276E-3	8.5849665E-9	-79.867195E+0	9.0922061E-9	-75.516594E+0
-749.01962E-3	8.5784118E-9	-79.762985E+0	9.1008001E-9	-72.398437E+0
-741.17649E-3	8.5757534E-9	-78.050140E+0	9.1075432E-9	-73.635437E+0
-733.33335E-3	8.5698932E-9	-78.731842E+0	9.1142738E-9	-67.732185E+0
-725.49021E-3	8.5712903E-9	-77.000816E+0	9.1191827E-9	-67.682289E+0
-717.64708E-3	8.5767917E-9	-74.868813E+0	9.1307939E-9	-65.058212E+0
-709.80394E-3	8.5761629E-9	-73.207695E+0	9.1372021E-9	-69.415413E+0
-701.96080E-3	8.5787057E-9	-74.740509E+0	9.1438865E-9	-72.312996E+0
-694.11767E-3	8.5817335E-9	-71.464668E+0	9.1575405E-9	-73.396896E+0
-686.27453E-3	8.5829992E-9	-74.510376E+0	9.1665395E-9	-64.971245E+0
-678.43139E-3	8.5852037E-9	-71.559128E+0	9.1725365E-9	-62.475796E+0
-670.58825E-3	8.5894554E-9	-68.472908E+0	9.1752410E-9	-63.345097E+0
-662.74512E-3	8.5952596E-9	-71.724709E+0	9.1770014E-9	-63.788948E+0
-654.90198E-3	8.5976355E-9	-66.532570E+0	9.1878229E-9	-68.141121E+0
-647.05884E-3	8.6058867E-9	-68.749626E+0	9.1954986E-9	-62.787018E+0
-639.21571E-3	8.6171674E-9	-72.076210E+0	9.1994208E-9	-56.850006E+0
-631.37257E-3	8.6248146E-9	-70.680908E+0	9.2038501E-9	-62.696003E+0
-623.52937E-3	8.6309599E-9	-69.321930E+0	9.2134371E-9	-61.505615E+0
-615.68624E-3	8.6326049E-9	-66.791771E+0	9.2105781E-9	-61.310986E+0
-607.84310E-3	8.6407672E-9	-69.189163E+0	9.2145189E-9	-60.407875E+0
-599.99996E-3	8.6474374E-9	-67.887520E+0	9.2205941E-9	-58.555038E+0
-592.15683E-3	8.6521910E-9	-66.315399E+0	9.2224726E-9	-57.367874E+0
-584.31369E-3	8.6573735E-9	-65.989044E+0	9.2261132E-9	-58.391678E+0
-576.47055E-3	8.6607645E-9	-67.014481E+0	9.2300434E-9	-58.828114E+0
-568.62742E-3	8.6635321E-9	-65.689743E+0	9.2329895E-9	-63.316498E+0
-560.78428E-3	8.6655474E-9	-66.873291E+0	9.2381471E-9	-63.960152E+0
-552.94114E-3	8.6680725E-9	-67.302063E+0	9.2490264E-9	-63.212761E+0
-545.09801E-3	8.6713019E-9	-66.634308E+0	9.2565964E-9	-59.770309E+0
-537.25487E-3	8.6784961E-9	-65.783768E+0	9.2625596E-9	-56.249805E+0
-529.41173E-3	8.6800256E-9	-65.981911E+0	9.2703454E-9	-58.054287E+0
-521.56860E-3	8.6870369E-9	-68.249992E+0	9.2722576E-9	-55.062130E+0
-513.72546E-3	8.6886001E-9	-63.736469E+0	9.2805594E-9	-57.423634E+0
-505.88232E-3	8.6981267E-9	-60.304104E+0	9.2831156E-9	-59.248005E+0
-498.03919E-3	8.7041698E-9	-65.891945E+0	9.2864010E-9	-59.362553E+0
-490.19605E-3	8.7108756E-9	-65.071426E+0	9.2931476E-9	-57.292927E+0
-482.35291E-3	8.7203471E-9	-61.240372E+0	9.3000301E-9	-55.252502E+0
-474.50978E-3	8.7247747E-9	-63.622326E+0	9.2978096E-9	-56.552364E+0
-466.66664E-3	8.7272456E-9	-61.224125E+0	9.2989332E-9	-59.545815E+0
-458.82350E-3	8.7386764E-9	-63.860203E+0	9.3069286E-9	-57.477108E+0
-450.98037E-3	8.7463210E-9	-61.963898E+0	9.3063717E-9	-54.377621E+0
-443.13723E-3	8.7498240E-9	-60.630123E+0	9.3100763E-9	-56.295719E+0
-435.29409E-3	8.7580920E-9	-59.529789E+0	9.3134043E-9	-52.847057E+0
-427.45095E-3	8.7613561E-9	-64.044601E+0	9.3115258E-9	-56.284943E+0
-419.60782E-3	8.7696854E-9	-62.840809E+0	9.3086445E-9	-63.360085E+0
-411.76468E-3	8.7829894E-9	-60.978699E+0	9.3112336E-9	-54.548813E+0
-403.92154E-3	8.7887893E-9	-60.386204E+0	9.3118073E-9	-50.084496E+0
-396.07841E-3	8.7919894E-9	-59.429199E+0	9.3105275E-9	-48.372311E+0
-388.23527E-3	8.7993914E-9	-60.954754E+0	9.3138031E-9	-46.026291E+0
-380.39213E-3	8.8031893E-9	-59.151463E+0	9.3133234E-9	-54.742790E+0
-372.54900E-3	8.8130347E-9	-60.275211E+0	9.3163726E-9	-45.570736E+0
-364.70586E-3	8.8127328E-9	-61.870697E+0	9.3246690E-9	-50.495037E+0
-356.86272E-3	8.8241023E-9	-60.314465E+0	9.3267447E-9	-46.315857E+0
-349.01959E-3	8.8292742E-9	-60.125156E+0	9.3301313E-9	-54.522247E+0
-341.17645E-3	8.8373797E-9	-59.431461E+0	9.3370547E-9	-48.178936E+0
-333.33331E-3	8.8405017E-9	-61.445648E+0	9.3347579E-9	-48.394821E+0
-325.49018E-3	8.8490015E-9	-60.126732E+0	9.3388222E-9	-51.192802E+0
-317.64704E-3	8.8535863E-9	-56.680962E+0	9.3426031E-9	-48.510983E+0
-309.80390E-3	8.8611527E-9	-58.223606E+0	9.3405648E-9	-46.933777E+0
-301.96077E-3	8.8719716E-9	-58.437065E+0	9.3400514E-9	-49.988041E+0
-294.11763E-3	8.8802485E-9	-57.379162E+0	9.3440278E-9	-43.734348E+0
-286.27449E-3	8.8851779E-9	-54.513020E+0	9.3436876E-9	-48.830105E+0
-278.43136E-3	8.8983496E-9	-55.745747E+0	9.3449533E-9	-47.227795E+0
-270.58822E-3	8.9027656E-9	-57.677959E+0	9.3427497E-9	-46.069927E+0
-262.74508E-3	8.9136254E-9	-59.471085E+0	9.3425605E-9	-49.041641E+0
-254.90195E-3	8.9176755E-9	-59.053291E+0	9.3417416E-9	-49.292675E+0
-247.05875E-3	8.9216092E-9	-57.670979E+0	9.3488168E-9	-49.700588E+0
-239.21561E-3	8.9267749E-9	-58.840290E+0	9.3481995E-9	-48.714947E+0
-231.37248E-3	8.9326750E-9	-53.236233E+0	9.3523624E-9	-49.183105E+0
-223.52934E-3	8.9353218E-9	-56.452778E+0	9.3534238E-9	-47.444519E+0
-215.68620E-3	8.9396277E-9	-54.115459E+0	9.3586703E-9	-47.348629E+0
-207.84307E-3	8.9467997E-9	-56.777668E+0	9.3632844E-9	-49.964172E+0
-199.99993E-3	8.9491543E-9	-57.552654E+0	9.3649302E-9	-51.965599E+0
-192.15679E-3	8.9530419E-9	-54.161324E+0	9.3730597E-9	-48.249313E+0
-184.31365E-3	8.9575298E-9	-54.520287E+0	9.3744763E-9	-45.741783E+0
-176.47052E-3	8.9611412E-9	-51.809650E+0	9.3772847E-9	-46.760830E+0
-168.62738E-3	8.9678664E-9	-53.605034E+0	9.3737196E-9	-40.248390E+0
-160.78424E-3	8.9766621E-9	-54.318184E+0	9.3752925E-9	-43.666332E+0
-152.94111E-3	8.9840793E-9	-53.711647E+0	9.3759569E-9	-49.005070E+0
-145.09797E-3	8.9876258E-9	-52.198975E+0	9.3799795E-9	-49.800701E+0
-137.25483E-3	8.9929344E-9	-54.532177E+0	9.3787751E-9	-41.412022E+0
-129.41170E-3	8.9999448E-9	-52.636600E+0	9.3755528E-9	-48.961819E+0
-121.56856E-3	9.0080512E-9	-53.303524E+0	9.3757793E-9	-45.861855E+0
-113.72542E-3	9.0120649E-9	-54.208511E+0	9.3746246E-9	-39.740311E+0
-105.88229E-3	9.0181125E-9	-52.852905E+0	9.3814734E-9	-44.089020E+0
-98.039150E-3	9.0250882E-9	-53.447857E+0	9.3790646E-9	-47.058887E+0
-90.196013E-3	9.0266301E-9	-53.747173E+0	9.3845491E-9	-43.241219E+0
-82.352877E-3	9.0365866E-9	-52.992023E+0	9.3876258E-9	-42.404778E+0
-74.509740E-3	9.0421217E-9	-50.862473E+0	9.3852135E-9	-40.614666E+0
-66.666603E-3	9.0464107E-9	-52.677631E+0	9.3934807E-9	-47.908482E+0
-58.823466E-3	9.0514991E-9	-52.021469E+0	9.3908810E-9	-42.797955E+0
-50.980330E-3	9.0553192E-9	-48.010403E+0	9.3941690E-9	-40.357651E+0
-43.137193E-3	9.0592698E-9	-50.709221E+0	9.3976738E-9	-39.766388E+0
-35.294056E-3	9.0615817E-9	-50.584827E+0	9.3955386E-9	-40.392345E+0
-27.450919E-3	9.0666266E-9	-50.459175E+0	9.3988932E-9	-42.368614E+0
-19.607782E-3	9.0731884E-9	-49.800911E+0	9.4027062E-9	-45.226101E+0
-11.764646E-3	9.0733350E-9	-50.831516E+0	9.4070840E-9	-40.682182E+0
-3.9215088E-3	9.0817718E-9	-49.999352E+0	9.4097432E-9	-37.036522E+0
3.9216280E-3	9.0862313E-9	-49.874958E+0	9.4093293E-9	-40.367031E+0
11.764765E-3	9.0897014E-9	-48.009697E+0	9.4155812E-9	-43.065891E+0
19.607902E-3	9.0923544E-9	-49.687057E+0	9.4135597E-9	-44.503063E+0
27.451038E-3	9.0968184E-9	-49.328274E+0	9.4090158E-9	-34.058449E+0
35.294175E-3	9.1010648E-9	-45.880688E+0	9.4125943E-9	-43.821064E+0
43.137312E-3	9.1081676E-9	-46.922306E+0	9.4072448E-9	-45.264481E+0
50.980449E-3	9.1115702E-9	-45.769333E+0	9.4065467E-9	-42.974102E+0
58.823586E-3	9.1112256E-9	-49.314674E+0	9.4125649E-9	-37.039650E+0
66.666722E-3	9.1131991E-9	-51.604893E+0	9.4105959E-9	-42.280338E+0
74.509859E-3	9.1135233E-9	-48.737755E+0	9.4117549E-9	-41.870537E+0
82.352996E-3	9.1197450E-9	-48.123711E+0	9.4169534E-9	-46.147858E+0
90.196133E-3	9.1163708E-9	-47.662212E+0	9.4158548E-9	-44.155777E+0
98.039269E-3	9.1209591E-9	-45.066174E+0	9.4177368E-9	-42.743931E+0
105.88241E-3	9.1258086E-9	-50.674164E+0	9.4250270E-9	-38.638245E+0
113.72554E-3	9.1282271E-9	-46.959621E+0	9.4233519E-9	-41.660023E+0
121.56868E-3	9.1341699E-9	-44.854794E+0	9.4219326E-9	-37.477512E+0
129.41182E-3	9.1354870E-9	-44.423122E+0	9.4226182E-9	-38.132957E+0
137.25495E-3	9.1374339E-9	-46.213005E+0	9.4196162E-9	-41.522739E+0
145.09809E-3	9.1404271E-9	-43.820789E+0	9.4206154E-9	-40.590851E+0
152.94123E-3	9.1447321E-9	-45.595253E+0	9.4210124E-9	-40.347168E+0
160.78436E-3	9.1535473E-9	-47.624218E+0	9.4167563E-9	-40.342205E+0
168.62750E-3	9.1565369E-9	-47.883728E+0	9.4209955E-9	-44.690823E+0
176.47064E-3	9.1602237E-9	-46.578251E+0	9.4191375E-9	-39.871799E+0
184.31377E-3	9.1605585E-9	-41.276348E+0	9.4189723E-9	-41.242973E+0
192.15691E-3	9.1681134E-9	-44.986919E+0	9.4159525E-9	-41.961201E+0
200.00005E-3	9.1724921E-9	-41.995667E+0	9.4159240E-9	-38.423759E+0
207.84318E-3	9.1764090E-9	-44.060833E+0	9.4196562E-9	-42.030483E+0
215.68632E-3	9.1777652E-9	-41.309639E+0	9.4175689E-9	-44.054169E+0
223.52946E-3	9.1792156E-9	-45.916615E+0	9.4166932E-9	-42.412018E+0
231.37259E-3	9.1851833E-9	-46.671764E+0	9.4174260E-9	-39.581917E+0
239.21573E-3	9.1883869E-9	-44.388428E+0	9.4167545E-9	-38.198875E+0
247.05887E-3	9.1930978E-9	-39.668541E+0	9.4164134E-9	-43.799038E+0
254.90201E-3	9.1960421E-9	-45.951324E+0	9.4201660E-9	-42.043118E+0
262.74514E-3	9.1982164E-9	-42.019482E+0	9.4143306E-9	-40.304317E+0
270.58828E-3	9.2005070E-9	-46.665314E+0	9.4175956E-9	-37.584015E+0
278.43142E-3	9.2040979E-9	-43.582695E+0	9.4129033E-9	-35.241821E+0
286.27455E-3	9.2022923E-9	-45.720089E+0	9.4138919E-9	-33.991154E+0
294.11769E-3	9.2030854E-9	-43.590141E+0	9.4063957E-9	-42.100601E+0
301.96083E-3	9.2017132E-9	-39.058311E+0	9.4125561E-9	-38.354568E+0
309.80396E-3	9.2030596E-9	-43.791622E+0	9.4087893E-9	-36.707550E+0
317.64710E-3	9.2067056E-9	-42.633625E+0	9.4090788E-9	-39.232025E+0
325.49024E-3	9.2136814E-9	-40.539539E+0	9.4069428E-9	-42.247253E+0
333.33337E-3	9.2131041E-9	-42.620384E+0	9.4029424E-9	-39.115360E+0
341.17651E-3	9.2162740E-9	-38.232792E+0	9.4028811E-9	-37.919487E+0
349.01965E-3	9.2166745E-9	-42.911793E+0	9.3954817E-9	-39.116520E+0
356.86278E-3	9.2221857E-9	-42.039845E+0	9.3939416E-9	-45.747475E+0
364.70592E-3	9.2243475E-9	-40.539719E+0	9.3920178E-9	-37.425125E+0
372.54906E-3	9.2257304E-9	-39.579746E+0	9.3901953E-9	-40.447708E+0
380.39219E-3	9.2321129E-9	-40.842716E+0	9.3864987E-9	-36.030277E+0
388.23533E-3	9.2344319E-9	-42.504086E+0	9.3929682E-9	-38.915020E+0
396.07847E-3	9.2374357E-9	-41.907204E+0	9.3860546E-9	-40.925663E+0
403.92160E-3	9.2410559E-9	-42.272972E+0	9.3825570E-9	-35.412560E+0
411.76474E-3	9.2355146E-9	-40.999619E+0	9.3843529E-9	-36.521965E+0
419.60788E-3	9.2334176E-9	-43.711510E+0	9.3833075E-9	-37.838303E+0
427.45101E-3	9.2386943E-9	-39.585346E+0	9.3794137E-9	-41.813492E+0
435.29415E-3	9.2434531E-9	-41.027843E+0	9.3793799E-9	-36.418427E+0
443.13729E-3	9.2432160E-9	-40.057400E+0	9.3816306E-9	-40.494343E+0
450.98042E-3	9.2430934E-9	-41.307793E+0	9.3832311E-9	-41.677429E+0
458.82356E-3	9.2493613E-9	-42.206951E+0	9.3799342E-9	-37.712288E+0
466.66670E-3	9.2514290E-9	-41.972176E+0	9.3708064E-9	-37.638798E+0
474.50984E-3	9.2549639E-9	-39.536690E+0	9.3734718E-9	-39.154190E+0
482.35297E-3	9.2551851E-9	-33.217930E+0	9.3673043E-9	-39.235374E+0
490.19611E-3	9.2627239E-9	-34.650047E+0	9.3697192E-9	-42.375725E+0
498.03925E-3	9.2633243E-9	-36.206165E+0	9.3646770E-9	-39.445244E+0
505.88250E-3	9.2606980E-9	-37.282509E+0	9.3658237E-9	-42.762062E+0
513.72564E-3	9.2695398E-9	-39.184174E+0	9.3651993E-9	-40.148064E+0
521.56878E-3	9.2712833E-9	-41.240719E+0	9.3654657E-9	-39.589340E+0
529.41191E-3	9.2695487E-9	-42.028275E+0	9.3725374E-9	-46.099323E+0
537.25505E-3	9.2712220E-9	-41.043980E+0	9.3678088E-9	-39.802475E+0
545.09819E-3	9.2765307E-9	-40.379292E+0	9.3715720E-9	-40.954754E+0
552.94132E-3	9.2770023E-9	-40.530773E+0	9.3698054E-9	-39.623508E+0
560.78446E-3	9.2832071E-9	-41.450508E+0	9.3711012E-9	-40.089794E+0
568.62760E-3	9.2875130E-9	-43.636398E+0	9.3702814E-9	-40.522266E+0
576.47073E-3	9.2931822E-9	-41.429424E+0	9.3721928E-9	-38.787567E+0
584.31387E-3	9.2960137E-9	-42.923996E+0	9.3708667E-9	-34.263836E+0
592.15701E-3	9.2941992E-9	-39.147926E+0	9.3762118E-9	-33.485302E+0
600.00014E-3	9.3001793E-9	-43.539883E+0	9.3750847E-9	-41.788334E+0
607.84328E-3	9.3030401E-9	-39.410736E+0	9.3776480E-9	-37.204987E+0
615.68642E-3	9.3033359E-9	-38.713280E+0	9.3836272E-9	-36.459805E+0
623.52955E-3	9.3059684E-9	-40.352863E+0	9.3816075E-9	-36.791763E+0
631.37269E-3	9.3116830E-9	-39.736515E+0	9.3811838E-9	-40.980583E+0
639.21583E-3	9.3107557E-9	-38.130619E+0	9.3752890E-9	-41.711884E+0
647.05896E-3	9.3123580E-9	-39.684189E+0	9.3765014E-9	-41.845203E+0
654.90210E-3	9.3138119E-9	-40.398796E+0	9.3751416E-9	-42.494247E+0
662.74524E-3	9.3136467E-9	-42.169598E+0	9.3766710E-9	-42.373547E+0
670.58837E-3	9.3099137E-9	-40.699814E+0	9.3744985E-9	-41.381458E+0
678.43151E-3	9.3130446E-9	-37.779167E+0	9.3709955E-9	-35.792297E+0
686.27465E-3	9.3109156E-9	-42.315857E+0	9.3706092E-9	-38.850491E+0
694.11778E-3	9.3181995E-9	-40.153133E+0	9.3671249E-9	-40.365299E+0
701.96092E-3	9.3203179E-9	-42.792355E+0	9.3658796E-9	-41.087467E+0
709.80406E-3	9.3222061E-9	-36.725685E+0	9.3656780E-9	-40.283909E+0
717.64719E-3	9.3185282E-9	-41.351608E+0	9.3665538E-9	-44.268871E+0
725.49033E-3	9.3226387E-9	-42.849571E+0	9.3626795E-9	-42.195351E+0
733.33347E-3	9.3231902E-9	-41.986427E+0	9.3660164E-9	-42.922977E+0
741.17661E-3	9.3266443E-9	-42.621822E+0	9.3646815E-9	-39.789173E+0
749.01974E-3	9.3283949E-9	-39.122211E+0	9.3614352E-9	-42.433231E+0
756.86288E-3	9.3253316E-9	-43.608086E+0	9.3601118E-9	-41.537083E+0
764.70602E-3	9.3264187E-9	-40.294697E+0	9.3556665E-9	-41.510456E+0
772.54915E-3	9.3287253E-9	-41.087425E+0	9.3534096E-9	-40.499130E+0
780.39229E-3	9.3340109E-9	-42.765316E+0	9.3544221E-9	-42.008858E+0
788.23543E-3	9.3379198E-9	-41.754333E+0	9.3515560E-9	-41.073677E+0
796.07856E-3	9.3372918E-9	-47.244980E+0	9.3579384E-9	-43.700008E+0
803.92170E-3	9.3363015E-9	-38.787525E+0	9.3560093E-9	-40.873253E+0
811.76484E-3	9.3401535E-9	-45.057133E+0	9.3537995E-9	-41.950890E+0
819.60797E-3	9.3404164E-9	-40.524841E+0	9.3542587E-9	-43.096706E+0
827.45111E-3	9.3393639E-9	-41.830830E+0	9.3520898E-9	-43.296524E+0
835.29425E-3	9.3419423E-9	-46.122765E+0	9.3503596E-9	-42.990498E+0
843.13738E-3	9.3416359E-9	-42.469505E+0	9.3470840E-9	-40.992504E+0
850.98052E-3	9.3416501E-9	-41.036865E+0	9.3498116E-9	-40.636475E+0
858.82366E-3	9.3381090E-9	-40.164162E+0	9.3529673E-9	-44.520901E+0
866.66679E-3	9.3419867E-9	-51.171234E+0	9.3546815E-9	-46.649887E+0
874.50993E-3	9.3365795E-9	-44.397228E+0	9.3547543E-9	-38.666328E+0
882.35307E-3	9.3389252E-9	-42.497646E+0	9.3551646E-9	-40.229282E+0
890.19620E-3	9.3402859E-9	-44.890007E+0	9.3559338E-9	-39.113850E+0
898.03934E-3	9.3325720E-9	-49.045185E+0	9.3549115E-9	-43.145691E+0
905.88248E-3	9.3318624E-9	-45.249496E+0	9.3507335E-9	-42.320992E+0
913.72561E-3	9.3333670E-9	-42.173782E+0	9.3489509E-9	-42.877537E+0
921.56875E-3	9.3297903E-9	-44.320934E+0	9.3435046E-9	-40.035828E+0
929.41189E-3	9.3197601E-9	-40.918827E+0	9.3420995E-9	-45.354744E+0
937.25502E-3	9.3205959E-9	-40.409027E+0	9.3403951E-9	-42.984131E+0
945.09816E-3	9.3232275E-9	-43.313358E+0	9.3370547E-9	-41.935177E+0
952.94130E-3	9.3234283E-9	-44.451584E+0	9.3301802E-9	-44.379654E+0
960.78444E-3	9.3224317E-9	-44.088142E+0	9.3323091E-9	-41.372948E+0
968.62757E-3	9.3207069E-9	-44.570038E+0	9.3292556E-9	-46.337830E+0
976.47071E-3	9.3207930E-9	-43.151726E+0	9.3268024E-9	-43.421989E+0
984.31385E-3	9.3174162E-9	-42.257187E+0	9.3218189E-9	-48.223427E+0
992.15698E-3	9.3159063E-9	-39.312504E+0	9.3249763E-9	-42.761089E+0
1.0000000E+0	9.3168842E-9	-45.476826E+0	9.3180317E-9	-40.365810E+0
