Experiment	bias spectroscopy	
Saved Date	07.11.2019 10:33:29	
User		
Date		
X (m)	5.06156E-6	
Y (m)	-1.36687E-6	
Z (m)	-59.6553E-9	
Z offset (m)	0E+0	
Settling time (s)	200E-6	
Integration time (s)	100E-6	
Z-Ctrl hold	TRUE	
Final Z (m)	N/A	
Start time	07.11.2019 10:32:54	
Filter type	None	
Order		
Cutoff frq		

[DATA]
Bias calc (V)	OC D1 Amplitude (m)	OC M1 Freq. Shift (Hz)	OC D1 Amplitude [bwd] (m)	OC M1 Freq. Shift [bwd] (Hz)
-1.0000000E+0	39.676880E-9	-74.153206E+0	39.851177E-9	-76.182594E+0
-992.15686E-3	39.659426E-9	-73.984726E+0	39.882039E-9	-73.942154E+0
-984.31373E-3	39.629757E-9	-74.445465E+0	39.923581E-9	-74.663689E+0
-976.47059E-3	39.605396E-9	-74.883163E+0	39.960995E-9	-73.715256E+0
-968.62745E-3	39.588056E-9	-72.834549E+0	39.981991E-9	-72.873878E+0
-960.78432E-3	39.567070E-9	-72.978439E+0	40.002288E-9	-71.479897E+0
-952.94118E-3	39.551296E-9	-71.412094E+0	40.022332E-9	-72.288193E+0
-945.09804E-3	39.539366E-9	-71.737740E+0	40.051596E-9	-72.766243E+0
-937.25491E-3	39.540652E-9	-70.360435E+0	40.081048E-9	-71.471352E+0
-929.41177E-3	39.537564E-9	-70.944443E+0	40.107906E-9	-70.612984E+0
-921.56863E-3	39.532818E-9	-69.545647E+0	40.138296E-9	-71.148788E+0
-913.72550E-3	39.525716E-9	-69.446007E+0	40.157929E-9	-69.950241E+0
-905.88236E-3	39.525645E-9	-68.978722E+0	40.181561E-9	-69.651360E+0
-898.03922E-3	39.530693E-9	-69.027252E+0	40.202764E-9	-69.018509E+0
-890.19608E-3	39.521858E-9	-68.705315E+0	40.223725E-9	-69.350357E+0
-882.35295E-3	39.518827E-9	-68.183884E+0	40.242757E-9	-68.700256E+0
-874.50981E-3	39.517932E-9	-67.791634E+0	40.264108E-9	-68.655510E+0
-866.66667E-3	39.519666E-9	-67.121231E+0	40.294800E-9	-68.648270E+0
-858.82354E-3	39.516021E-9	-66.383728E+0	40.315047E-9	-67.351715E+0
-850.98040E-3	39.512841E-9	-65.831093E+0	40.340417E-9	-66.338814E+0
-843.13726E-3	39.516948E-9	-65.660889E+0	40.354269E-9	-66.293404E+0
-835.29413E-3	39.523005E-9	-65.336250E+0	40.369109E-9	-65.201149E+0
-827.45099E-3	39.526626E-9	-64.954376E+0	40.378893E-9	-65.197701E+0
-819.60785E-3	39.519097E-9	-64.383186E+0	40.403229E-9	-66.125809E+0
-811.76472E-3	39.527947E-9	-63.829140E+0	40.428677E-9	-66.848213E+0
-803.92158E-3	39.536538E-9	-63.539043E+0	40.456609E-9	-65.656319E+0
-796.07844E-3	39.539110E-9	-63.251141E+0	40.495024E-9	-64.265327E+0
-788.23531E-3	39.545451E-9	-63.237579E+0	40.520927E-9	-65.527771E+0
-780.39217E-3	39.554603E-9	-62.509163E+0	40.554148E-9	-64.436768E+0
-772.54903E-3	39.565183E-9	-61.662956E+0	40.569873E-9	-61.879734E+0
-764.70590E-3	39.563389E-9	-62.279945E+0	40.584819E-9	-62.800262E+0
-756.86276E-3	39.571717E-9	-61.749855E+0	40.604871E-9	-63.872280E+0
-749.01962E-3	39.580343E-9	-60.709084E+0	40.632315E-9	-62.774166E+0
-741.17649E-3	39.597495E-9	-59.741730E+0	40.653685E-9	-61.372231E+0
-733.33335E-3	39.613337E-9	-60.075382E+0	40.666407E-9	-62.180023E+0
-725.49021E-3	39.626858E-9	-59.609097E+0	40.685698E-9	-60.610516E+0
-717.64708E-3	39.638572E-9	-58.668221E+0	40.700016E-9	-59.693195E+0
-709.80394E-3	39.655134E-9	-58.997330E+0	40.703675E-9	-60.177246E+0
-701.96080E-3	39.670528E-9	-58.535881E+0	40.714170E-9	-60.359127E+0
-694.11767E-3	39.683407E-9	-58.287605E+0	40.731845E-9	-60.012100E+0
-686.27453E-3	39.692264E-9	-58.274864E+0	40.747960E-9	-58.758549E+0
-678.43139E-3	39.709054E-9	-58.290241E+0	40.760941E-9	-59.491646E+0
-670.58825E-3	39.722746E-9	-57.434380E+0	40.776442E-9	-59.602985E+0
-662.74512E-3	39.736697E-9	-57.974556E+0	40.788240E-9	-57.887642E+0
-654.90198E-3	39.745181E-9	-57.804886E+0	40.797882E-9	-57.655727E+0
-647.05884E-3	39.754283E-9	-56.939934E+0	40.803322E-9	-58.107704E+0
-639.21571E-3	39.763290E-9	-56.291397E+0	40.810939E-9	-57.152821E+0
-631.37257E-3	39.775081E-9	-56.908974E+0	40.825544E-9	-56.783092E+0
-623.52937E-3	39.780481E-9	-56.780567E+0	40.839645E-9	-56.945705E+0
-615.68624E-3	39.796468E-9	-55.448700E+0	40.845620E-9	-56.224834E+0
-607.84310E-3	39.808345E-9	-55.156395E+0	40.849883E-9	-55.138794E+0
-599.99996E-3	39.821288E-9	-55.310287E+0	40.859284E-9	-56.280170E+0
-592.15683E-3	39.830027E-9	-55.981457E+0	40.872816E-9	-56.651798E+0
-584.31369E-3	39.836554E-9	-54.694576E+0	40.884572E-9	-55.135479E+0
-576.47055E-3	39.846427E-9	-54.437347E+0	40.893639E-9	-55.205948E+0
-568.62742E-3	39.859195E-9	-54.704262E+0	40.909420E-9	-55.486549E+0
-560.78428E-3	39.864936E-9	-53.853554E+0	40.917815E-9	-54.597584E+0
-552.94114E-3	39.877655E-9	-53.785641E+0	40.926565E-9	-52.932625E+0
-545.09801E-3	39.889990E-9	-53.372318E+0	40.929503E-9	-53.563202E+0
-537.25487E-3	39.907071E-9	-52.597404E+0	40.931905E-9	-53.927746E+0
-529.41173E-3	39.919730E-9	-52.190315E+0	40.935781E-9	-52.591988E+0
-521.56860E-3	39.934282E-9	-52.687298E+0	40.942435E-9	-53.076378E+0
-513.72546E-3	39.954767E-9	-52.157963E+0	40.949470E-9	-53.326332E+0
-505.88232E-3	39.970345E-9	-50.967892E+0	40.957488E-9	-52.930740E+0
-498.03919E-3	39.988215E-9	-51.167114E+0	40.971713E-9	-52.501938E+0
-490.19605E-3	40.001243E-9	-51.376160E+0	40.978723E-9	-51.462296E+0
-482.35291E-3	40.022819E-9	-50.453213E+0	40.984144E-9	-52.411705E+0
-474.50978E-3	40.044029E-9	-50.192684E+0	40.992589E-9	-51.466587E+0
-466.66664E-3	40.055863E-9	-50.685787E+0	41.002110E-9	-50.880913E+0
-458.82350E-3	40.067921E-9	-51.276024E+0	41.008239E-9	-51.394623E+0
-450.98037E-3	40.079193E-9	-50.339272E+0	41.010949E-9	-50.331985E+0
-443.13723E-3	40.097007E-9	-49.734375E+0	41.015330E-9	-49.785046E+0
-435.29409E-3	40.109718E-9	-49.949821E+0	41.031601E-9	-50.190414E+0
-427.45095E-3	40.118881E-9	-49.735481E+0	41.041254E-9	-50.801529E+0
-419.60782E-3	40.137380E-9	-49.608517E+0	41.054697E-9	-49.313778E+0
-411.76468E-3	40.149555E-9	-48.818459E+0	41.059764E-9	-48.965431E+0
-403.92154E-3	40.163361E-9	-48.930737E+0	41.069928E-9	-50.509331E+0
-396.07841E-3	40.178168E-9	-48.516834E+0	41.088704E-9	-49.568069E+0
-388.23527E-3	40.191413E-9	-47.679085E+0	41.096175E-9	-48.171196E+0
-380.39213E-3	40.209137E-9	-48.477077E+0	41.099320E-9	-48.574558E+0
-372.54900E-3	40.225277E-9	-47.259293E+0	41.110987E-9	-48.988468E+0
-364.70586E-3	40.243012E-9	-46.878918E+0	41.126977E-9	-48.689461E+0
-356.86272E-3	40.259540E-9	-46.658695E+0	41.132537E-9	-47.618862E+0
-349.01959E-3	40.279673E-9	-46.670269E+0	41.142808E-9	-48.761730E+0
-341.17645E-3	40.296797E-9	-46.554340E+0	41.156419E-9	-47.876705E+0
-333.33331E-3	40.310631E-9	-45.957886E+0	41.164483E-9	-46.585522E+0
-325.49018E-3	40.324757E-9	-46.318817E+0	41.173589E-9	-47.322914E+0
-317.64704E-3	40.346094E-9	-46.102867E+0	41.182084E-9	-46.757427E+0
-309.80390E-3	40.359769E-9	-45.242371E+0	41.186183E-9	-46.037788E+0
-301.96077E-3	40.370164E-9	-45.671814E+0	41.193399E-9	-46.091675E+0
-294.11763E-3	40.392209E-9	-45.510120E+0	41.203069E-9	-46.535576E+0
-286.27449E-3	40.409141E-9	-45.136101E+0	41.208011E-9	-46.177471E+0
-278.43136E-3	40.424563E-9	-44.898502E+0	41.210171E-9	-44.697563E+0
-270.58822E-3	40.434500E-9	-44.789719E+0	41.219522E-9	-45.815022E+0
-262.74508E-3	40.450288E-9	-44.767723E+0	41.224432E-9	-45.591412E+0
-254.90195E-3	40.466169E-9	-43.651871E+0	41.228692E-9	-44.768787E+0
-247.05875E-3	40.479179E-9	-44.228733E+0	41.232777E-9	-44.701183E+0
-239.21561E-3	40.492491E-9	-44.483196E+0	41.238124E-9	-44.621834E+0
-231.37248E-3	40.509541E-9	-43.191643E+0	41.239751E-9	-44.463631E+0
-223.52934E-3	40.530477E-9	-42.930107E+0	41.241989E-9	-44.050915E+0
-215.68620E-3	40.545515E-9	-42.807396E+0	41.246093E-9	-44.468571E+0
-207.84307E-3	40.561854E-9	-43.424469E+0	41.253841E-9	-44.819195E+0
-199.99993E-3	40.575252E-9	-42.477993E+0	41.259977E-9	-43.936523E+0
-192.15679E-3	40.599240E-9	-41.654282E+0	41.264169E-9	-43.241146E+0
-184.31365E-3	40.611759E-9	-43.251114E+0	41.268713E-9	-44.691555E+0
-176.47052E-3	40.629686E-9	-42.257435E+0	41.279847E-9	-44.192772E+0
-168.62738E-3	40.640678E-9	-41.775375E+0	41.284856E-9	-43.775238E+0
-160.78424E-3	40.658158E-9	-41.704941E+0	41.295220E-9	-43.155022E+0
-152.94111E-3	40.673431E-9	-41.800644E+0	41.302208E-9	-44.712986E+0
-145.09797E-3	40.687826E-9	-41.229992E+0	41.315207E-9	-43.210266E+0
-137.25483E-3	40.696928E-9	-41.575581E+0	41.318422E-9	-41.797947E+0
-129.41170E-3	40.711509E-9	-42.017231E+0	41.325396E-9	-42.800903E+0
-121.56856E-3	40.720394E-9	-41.103912E+0	41.327272E-9	-42.666851E+0
-113.72542E-3	40.735735E-9	-40.044395E+0	41.330793E-9	-41.258739E+0
-105.88229E-3	40.743306E-9	-41.248688E+0	41.329095E-9	-41.785740E+0
-98.039150E-3	40.761972E-9	-41.151524E+0	41.329404E-9	-41.830650E+0
-90.196013E-3	40.772282E-9	-39.693718E+0	41.338083E-9	-41.774284E+0
-82.352877E-3	40.783000E-9	-39.981853E+0	41.338261E-9	-41.281227E+0
-74.509740E-3	40.795680E-9	-40.357307E+0	41.347377E-9	-41.947353E+0
-66.666603E-3	40.808548E-9	-40.195030E+0	41.353772E-9	-42.329025E+0
-58.823466E-3	40.821465E-9	-39.744633E+0	41.361680E-9	-40.286655E+0
-50.980330E-3	40.825345E-9	-39.449215E+0	41.372449E-9	-41.537968E+0
-43.137193E-3	40.836412E-9	-40.390560E+0	41.378627E-9	-41.341812E+0
-35.294056E-3	40.846842E-9	-39.405720E+0	41.388866E-9	-41.173618E+0
-27.450919E-3	40.856545E-9	-39.686172E+0	41.400938E-9	-40.081795E+0
-19.607782E-3	40.865942E-9	-39.367752E+0	41.404778E-9	-41.002285E+0
-11.764646E-3	40.870397E-9	-39.211155E+0	41.419671E-9	-40.813629E+0
-3.9215088E-3	40.887048E-9	-39.274231E+0	41.427555E-9	-39.660957E+0
3.9216280E-3	40.897728E-9	-39.213261E+0	41.427967E-9	-39.876144E+0
11.764765E-3	40.904670E-9	-39.468254E+0	41.440376E-9	-40.800816E+0
19.607902E-3	40.911520E-9	-38.588440E+0	41.446810E-9	-40.240860E+0
27.451038E-3	40.923396E-9	-38.253582E+0	41.453006E-9	-39.078285E+0
35.294175E-3	40.936428E-9	-38.938545E+0	41.454740E-9	-39.956989E+0
43.137312E-3	40.943238E-9	-38.634460E+0	41.467640E-9	-39.930264E+0
50.980449E-3	40.950205E-9	-38.275658E+0	41.474532E-9	-39.574608E+0
58.823586E-3	40.957829E-9	-38.357910E+0	41.475325E-9	-38.112400E+0
66.666722E-3	40.968036E-9	-38.997372E+0	41.472713E-9	-39.045353E+0
74.509859E-3	40.967969E-9	-38.778996E+0	41.471782E-9	-38.347946E+0
82.352996E-3	40.979597E-9	-37.140041E+0	41.476159E-9	-37.659313E+0
90.196133E-3	40.991242E-9	-37.707050E+0	41.471061E-9	-38.190224E+0
98.039269E-3	41.006039E-9	-37.484489E+0	41.467874E-9	-38.137020E+0
105.88241E-3	41.011283E-9	-37.538681E+0	41.467466E-9	-37.326458E+0
113.72554E-3	41.016907E-9	-37.103584E+0	41.462570E-9	-37.248608E+0
121.56868E-3	41.026009E-9	-37.356937E+0	41.463508E-9	-38.064800E+0
129.41182E-3	41.039858E-9	-37.106781E+0	41.461686E-9	-38.152351E+0
137.25495E-3	41.043211E-9	-37.245495E+0	41.458133E-9	-36.946423E+0
145.09809E-3	41.050942E-9	-37.121853E+0	41.467015E-9	-37.684238E+0
152.94123E-3	41.056779E-9	-37.291187E+0	41.471921E-9	-37.992458E+0
160.78436E-3	41.068205E-9	-36.280552E+0	41.471665E-9	-37.439026E+0
168.62750E-3	41.069043E-9	-36.791851E+0	41.470290E-9	-36.700451E+0
176.47064E-3	41.078948E-9	-37.059464E+0	41.472394E-9	-37.244602E+0
184.31377E-3	41.090104E-9	-36.794147E+0	41.472763E-9	-37.717636E+0
192.15691E-3	41.099206E-9	-35.472797E+0	41.466489E-9	-36.747597E+0
200.00005E-3	41.105213E-9	-36.007416E+0	41.464705E-9	-37.203575E+0
207.84318E-3	41.115577E-9	-36.875763E+0	41.469342E-9	-37.554371E+0
215.68632E-3	41.124498E-9	-36.253716E+0	41.472610E-9	-37.006344E+0
223.52946E-3	41.128196E-9	-35.997272E+0	41.474316E-9	-36.919758E+0
231.37259E-3	41.132477E-9	-36.688198E+0	41.480273E-9	-37.063507E+0
239.21573E-3	41.135447E-9	-36.699638E+0	41.485354E-9	-37.741779E+0
247.05887E-3	41.145377E-9	-35.941494E+0	41.491905E-9	-35.940517E+0
254.90201E-3	41.149207E-9	-36.216778E+0	41.482458E-9	-35.893917E+0
262.74514E-3	41.151768E-9	-36.348301E+0	41.487223E-9	-37.094143E+0
270.58828E-3	41.151189E-9	-35.673595E+0	41.492765E-9	-36.354111E+0
278.43142E-3	41.159673E-9	-35.024624E+0	41.493092E-9	-35.806381E+0
286.27455E-3	41.170157E-9	-35.874393E+0	41.489375E-9	-36.453217E+0
294.11769E-3	41.171521E-9	-35.715034E+0	41.490662E-9	-36.792084E+0
301.96083E-3	41.176317E-9	-35.011597E+0	41.500844E-9	-36.355907E+0
309.80396E-3	41.186542E-9	-35.104752E+0	41.506844E-9	-35.667755E+0
317.64710E-3	41.196422E-9	-35.608479E+0	41.512241E-9	-36.010586E+0
325.49024E-3	41.197360E-9	-35.596809E+0	41.515463E-9	-36.733727E+0
333.33337E-3	41.198710E-9	-34.566200E+0	41.524437E-9	-35.107239E+0
341.17651E-3	41.208629E-9	-34.697067E+0	41.529752E-9	-36.659412E+0
349.01965E-3	41.213532E-9	-35.740902E+0	41.535959E-9	-36.391502E+0
356.86278E-3	41.213486E-9	-35.095406E+0	41.545945E-9	-35.786018E+0
364.70592E-3	41.217852E-9	-34.698544E+0	41.554038E-9	-35.210403E+0
372.54906E-3	41.222513E-9	-35.201618E+0	41.556085E-9	-36.501553E+0
380.39219E-3	41.231001E-9	-35.316261E+0	41.559556E-9	-36.122692E+0
388.23533E-3	41.233619E-9	-34.994823E+0	41.566860E-9	-34.630341E+0
396.07847E-3	41.239478E-9	-34.650970E+0	41.566668E-9	-34.841679E+0
403.92160E-3	41.248406E-9	-35.131439E+0	41.566416E-9	-36.014809E+0
411.76474E-3	41.256087E-9	-34.339512E+0	41.565425E-9	-34.881599E+0
419.60788E-3	41.258634E-9	-34.060211E+0	41.563222E-9	-34.640869E+0
427.45101E-3	41.264364E-9	-35.134396E+0	41.564043E-9	-34.879574E+0
435.29415E-3	41.273502E-9	-34.995159E+0	41.560089E-9	-35.162872E+0
443.13729E-3	41.283702E-9	-33.827595E+0	41.553339E-9	-34.517353E+0
450.98042E-3	41.291969E-9	-35.058998E+0	41.555079E-9	-34.661179E+0
458.82356E-3	41.287375E-9	-36.116440E+0	41.558113E-9	-34.901821E+0
466.66670E-3	41.295472E-9	-34.914135E+0	41.549516E-9	-34.885468E+0
474.50984E-3	41.303192E-9	-33.887325E+0	41.547448E-9	-34.321823E+0
482.35297E-3	41.305771E-9	-34.811081E+0	41.549587E-9	-35.462975E+0
490.19611E-3	41.311644E-9	-34.926178E+0	41.551605E-9	-35.200352E+0
498.03925E-3	41.323180E-9	-34.034519E+0	41.551061E-9	-34.273281E+0
505.88250E-3	41.332221E-9	-34.497501E+0	41.541817E-9	-34.350586E+0
513.72564E-3	41.337088E-9	-34.663975E+0	41.541217E-9	-35.626556E+0
521.56878E-3	41.342879E-9	-34.698292E+0	41.541316E-9	-35.084217E+0
529.41191E-3	41.352980E-9	-34.111095E+0	41.537263E-9	-33.721851E+0
537.25505E-3	41.363833E-9	-34.674679E+0	41.526739E-9	-34.463188E+0
545.09819E-3	41.358529E-9	-35.525604E+0	41.526526E-9	-35.338470E+0
552.94132E-3	41.363961E-9	-34.101650E+0	41.528818E-9	-34.450363E+0
560.78446E-3	41.371198E-9	-34.221691E+0	41.523638E-9	-34.253674E+0
568.62760E-3	41.382538E-9	-34.992401E+0	41.515921E-9	-34.690147E+0
576.47073E-3	41.387363E-9	-34.478638E+0	41.510805E-9	-35.274372E+0
584.31387E-3	41.391679E-9	-34.152889E+0	41.505636E-9	-34.419334E+0
592.15701E-3	41.401051E-9	-34.468414E+0	41.494520E-9	-34.399506E+0
600.00014E-3	41.412346E-9	-35.345379E+0	41.491852E-9	-35.595703E+0
607.84328E-3	41.413404E-9	-34.921680E+0	41.488956E-9	-34.686985E+0
615.68642E-3	41.416566E-9	-34.819744E+0	41.484611E-9	-34.290474E+0
623.52955E-3	41.417461E-9	-35.968018E+0	41.476873E-9	-34.935940E+0
631.37269E-3	41.424343E-9	-34.948467E+0	41.467892E-9	-34.989342E+0
639.21583E-3	41.422233E-9	-35.179615E+0	41.463707E-9	-33.960510E+0
647.05896E-3	41.415944E-9	-35.703979E+0	41.464386E-9	-34.753632E+0
654.90210E-3	41.415561E-9	-35.820911E+0	41.457376E-9	-35.560829E+0
662.74524E-3	41.413070E-9	-35.558304E+0	41.447350E-9	-35.577919E+0
670.58837E-3	41.413589E-9	-34.981838E+0	41.442139E-9	-34.215839E+0
678.43151E-3	41.410683E-9	-35.503868E+0	41.435623E-9	-34.947254E+0
686.27465E-3	41.414804E-9	-35.112667E+0	41.430493E-9	-35.247314E+0
694.11778E-3	41.420908E-9	-34.547745E+0	41.424791E-9	-34.994972E+0
701.96092E-3	41.415039E-9	-35.651264E+0	41.420012E-9	-34.854435E+0
709.80406E-3	41.413905E-9	-35.934551E+0	41.416552E-9	-35.717594E+0
717.64719E-3	41.414719E-9	-35.400932E+0	41.420190E-9	-35.870300E+0
725.49033E-3	41.422904E-9	-33.925659E+0	41.406995E-9	-34.606140E+0
733.33347E-3	41.425359E-9	-35.211460E+0	41.402028E-9	-35.919853E+0
741.17661E-3	41.427263E-9	-36.222126E+0	41.407098E-9	-36.118450E+0
749.01974E-3	41.431736E-9	-35.230560E+0	41.401627E-9	-35.235634E+0
756.86288E-3	41.429022E-9	-35.039726E+0	41.391477E-9	-35.490696E+0
764.70602E-3	41.422627E-9	-36.315296E+0	41.384581E-9	-36.054520E+0
772.54915E-3	41.420748E-9	-35.777252E+0	41.391697E-9	-36.308159E+0
780.39229E-3	41.418737E-9	-35.655258E+0	41.388923E-9	-35.016247E+0
788.23543E-3	41.422020E-9	-35.613819E+0	41.388564E-9	-35.861809E+0
796.07856E-3	41.417042E-9	-36.371742E+0	41.383799E-9	-37.154991E+0
803.92170E-3	41.418826E-9	-35.323967E+0	41.392781E-9	-36.156727E+0
811.76484E-3	41.427302E-9	-35.041431E+0	41.393683E-9	-36.167938E+0
819.60797E-3	41.435090E-9	-36.066330E+0	41.394156E-9	-36.968365E+0
827.45111E-3	41.431758E-9	-36.022198E+0	41.396646E-9	-37.392899E+0
835.29425E-3	41.428684E-9	-35.990215E+0	41.403116E-9	-37.179680E+0
843.13738E-3	41.430656E-9	-36.281212E+0	41.409486E-9	-36.706646E+0
850.98052E-3	41.436472E-9	-36.274582E+0	41.406398E-9	-37.189407E+0
858.82366E-3	41.440245E-9	-36.221149E+0	41.404771E-9	-37.013386E+0
866.66679E-3	41.441254E-9	-36.070980E+0	41.407244E-9	-36.296886E+0
874.50993E-3	41.444999E-9	-37.212536E+0	41.402526E-9	-36.738064E+0
882.35307E-3	41.445418E-9	-37.267273E+0	41.395285E-9	-36.965256E+0
890.19620E-3	41.441510E-9	-36.628868E+0	41.389736E-9	-36.892067E+0
898.03934E-3	41.439339E-9	-36.925846E+0	41.392124E-9	-37.136166E+0
905.88248E-3	41.440916E-9	-36.879608E+0	41.386720E-9	-38.046143E+0
913.72561E-3	41.446729E-9	-36.653835E+0	41.387963E-9	-37.373276E+0
921.56875E-3	41.455664E-9	-36.398224E+0	41.391910E-9	-36.666355E+0
929.41189E-3	41.455333E-9	-36.701477E+0	41.398842E-9	-37.742954E+0
937.25502E-3	41.461831E-9	-37.920353E+0	41.410367E-9	-38.642494E+0
945.09816E-3	41.456037E-9	-37.161888E+0	41.411987E-9	-37.708820E+0
952.94130E-3	41.451830E-9	-37.429127E+0	41.413429E-9	-37.367577E+0
960.78444E-3	41.452445E-9	-37.818798E+0	41.415070E-9	-38.178207E+0
968.62757E-3	41.454314E-9	-38.325699E+0	41.420581E-9	-38.486679E+0
976.47071E-3	41.450448E-9	-37.505550E+0	41.421533E-9	-37.999901E+0
984.31385E-3	41.445968E-9	-37.829350E+0	41.426691E-9	-38.253418E+0
992.15698E-3	41.443091E-9	-38.651539E+0	41.437737E-9	-38.703190E+0
1.0000000E+0	41.443037E-9	-38.060989E+0	41.435747E-9	-37.922894E+0
