Experiment	bias spectroscopy	
Saved Date	07.11.2019 10:17:17	
User		
Date		
X (m)	4.74282E-6	
Y (m)	-1.38073E-6	
Z (m)	-10.7538E-9	
Z offset (m)	0E+0	
Settling time (s)	200E-6	
Integration time (s)	100E-6	
Z-Ctrl hold	TRUE	
Final Z (m)	N/A	
Start time	07.11.2019 10:16:48	
Filter type	None	
Order		
Cutoff frq		

[DATA]
Bias calc (V)	OC D1 Amplitude (m)	OC M1 Freq. Shift (Hz)	OC D1 Amplitude [bwd] (m)	OC M1 Freq. Shift [bwd] (Hz)
-1.0000000E+0	99.367831E-9	-59.734959E+0	105.58548E-9	-53.785778E+0
-992.15686E-3	99.423318E-9	-48.842506E+0	105.62581E-9	-55.142323E+0
-984.31373E-3	99.443390E-9	-59.388069E+0	105.65504E-9	-53.568199E+0
-976.47059E-3	99.483842E-9	-49.082577E+0	105.66863E-9	-53.649349E+0
-968.62745E-3	99.523312E-9	-58.911419E+0	105.68522E-9	-52.443329E+0
-960.78432E-3	99.519426E-9	-48.534180E+0	105.70869E-9	-54.724148E+0
-952.94118E-3	99.595702E-9	-55.216763E+0	105.74233E-9	-52.915329E+0
-945.09804E-3	99.599710E-9	-50.375885E+0	105.75074E-9	-52.319843E+0
-937.25491E-3	99.690752E-9	-51.648945E+0	105.78201E-9	-51.738194E+0
-929.41177E-3	99.674338E-9	-51.712357E+0	105.79301E-9	-53.012608E+0
-921.56863E-3	99.770745E-9	-49.490036E+0	105.82171E-9	-51.879166E+0
-913.72550E-3	99.775292E-9	-54.280148E+0	105.82519E-9	-50.528751E+0
-905.88236E-3	99.871379E-9	-46.153961E+0	105.84525E-9	-51.668755E+0
-898.03922E-3	99.874384E-9	-55.553448E+0	105.86000E-9	-51.191097E+0
-890.19608E-3	99.951620E-9	-46.771591E+0	105.89553E-9	-52.020504E+0
-882.35295E-3	100.00909E-9	-54.257782E+0	105.91443E-9	-49.906399E+0
-874.50981E-3	100.05512E-9	-45.392250E+0	105.94679E-9	-51.902336E+0
-866.66667E-3	100.11185E-9	-53.281151E+0	105.99071E-9	-49.613846E+0
-858.82354E-3	100.13782E-9	-47.508911E+0	106.00966E-9	-50.656445E+0
-850.98040E-3	100.23034E-9	-49.087780E+0	106.04212E-9	-49.996189E+0
-843.13726E-3	100.24320E-9	-47.816048E+0	106.04811E-9	-49.671696E+0
-835.29413E-3	100.32978E-9	-48.113152E+0	106.08379E-9	-48.680832E+0
-827.45099E-3	100.34577E-9	-49.617756E+0	106.10513E-9	-49.051979E+0
-819.60785E-3	100.44697E-9	-44.721912E+0	106.13272E-9	-49.836319E+0
-811.76472E-3	100.45360E-9	-51.650314E+0	106.12673E-9	-47.830601E+0
-803.92158E-3	100.52850E-9	-44.784588E+0	106.14647E-9	-48.302418E+0
-796.07844E-3	100.56407E-9	-50.744133E+0	106.16912E-9	-47.914547E+0
-788.23531E-3	100.63968E-9	-43.670673E+0	106.18997E-9	-49.501202E+0
-780.39217E-3	100.68972E-9	-51.135727E+0	106.20262E-9	-46.863239E+0
-772.54903E-3	100.72801E-9	-43.517506E+0	106.21762E-9	-47.783905E+0
-764.70590E-3	100.80034E-9	-47.748554E+0	106.24878E-9	-47.037285E+0
-756.86276E-3	100.83527E-9	-45.110752E+0	106.25088E-9	-47.616730E+0
-749.01962E-3	100.91966E-9	-46.569298E+0	106.26559E-9	-46.471844E+0
-741.17649E-3	100.92890E-9	-45.668648E+0	106.26780E-9	-46.751343E+0
-733.33335E-3	101.00862E-9	-43.788738E+0	106.29821E-9	-46.497047E+0
-725.49021E-3	101.02645E-9	-48.618031E+0	106.30633E-9	-45.340302E+0
-717.64708E-3	101.11083E-9	-42.543350E+0	106.31845E-9	-46.910656E+0
-709.80394E-3	101.13057E-9	-47.556221E+0	106.32974E-9	-45.742023E+0
-701.96080E-3	101.20199E-9	-42.325737E+0	106.34436E-9	-45.788727E+0
-694.11767E-3	101.25427E-9	-48.137577E+0	106.34967E-9	-43.743904E+0
-686.27453E-3	101.31330E-9	-41.363224E+0	106.33619E-9	-45.963158E+0
-678.43139E-3	101.36552E-9	-46.112995E+0	106.35447E-9	-45.022141E+0
-670.58825E-3	101.40854E-9	-42.632050E+0	106.36397E-9	-45.101921E+0
-662.74512E-3	101.49111E-9	-44.107430E+0	106.40402E-9	-43.948780E+0
-654.90198E-3	101.53252E-9	-41.947556E+0	106.40292E-9	-45.311546E+0
-647.05884E-3	101.60796E-9	-43.064232E+0	106.43349E-9	-45.443066E+0
-639.21571E-3	101.64027E-9	-44.403015E+0	106.44591E-9	-43.713772E+0
-631.37257E-3	101.72630E-9	-40.286770E+0	106.47794E-9	-44.039295E+0
-623.52937E-3	101.76797E-9	-44.397945E+0	106.47793E-9	-43.520466E+0
-615.68624E-3	101.84372E-9	-41.084770E+0	106.49947E-9	-44.437531E+0
-607.84310E-3	101.88509E-9	-45.032837E+0	106.51547E-9	-42.342163E+0
-599.99996E-3	101.95345E-9	-38.963638E+0	106.52368E-9	-44.014168E+0
-592.15683E-3	102.02078E-9	-44.244663E+0	106.54647E-9	-42.050060E+0
-584.31369E-3	102.06536E-9	-40.778622E+0	106.54404E-9	-43.451736E+0
-576.47055E-3	102.12844E-9	-42.149090E+0	106.58065E-9	-42.827023E+0
-568.62742E-3	102.17806E-9	-39.888638E+0	106.58801E-9	-43.448383E+0
-560.78428E-3	102.25575E-9	-41.576561E+0	106.62105E-9	-41.766582E+0
-552.94114E-3	102.28985E-9	-41.070957E+0	106.63109E-9	-41.718098E+0
-545.09801E-3	102.36091E-9	-39.459339E+0	106.66358E-9	-43.083431E+0
-537.25487E-3	102.41003E-9	-41.610146E+0	106.66602E-9	-41.666477E+0
-529.41173E-3	102.48671E-9	-39.331268E+0	106.68187E-9	-41.145840E+0
-521.56860E-3	102.52513E-9	-41.958298E+0	106.68369E-9	-40.249950E+0
-513.72546E-3	102.58695E-9	-37.908363E+0	106.69399E-9	-42.837193E+0
-505.88232E-3	102.63366E-9	-43.027138E+0	106.71108E-9	-40.418507E+0
-498.03919E-3	102.69815E-9	-37.999100E+0	106.70316E-9	-40.995846E+0
-490.19605E-3	102.75394E-9	-40.173233E+0	106.71245E-9	-39.946285E+0
-482.35291E-3	102.79459E-9	-38.233109E+0	106.71496E-9	-41.494297E+0
-474.50978E-3	102.86832E-9	-40.517071E+0	106.74016E-9	-39.796318E+0
-466.66664E-3	102.92148E-9	-38.444733E+0	106.73200E-9	-40.560513E+0
-458.82350E-3	102.99081E-9	-37.760792E+0	106.74967E-9	-40.381069E+0
-450.98037E-3	103.01039E-9	-39.907352E+0	106.76582E-9	-39.116756E+0
-443.13723E-3	103.08791E-9	-38.036541E+0	106.76940E-9	-39.797626E+0
-435.29409E-3	103.12959E-9	-39.258644E+0	106.76812E-9	-39.598232E+0
-427.45095E-3	103.19341E-9	-36.664032E+0	106.77977E-9	-40.575928E+0
-419.60782E-3	103.22549E-9	-40.549065E+0	106.78333E-9	-37.675522E+0
-411.76468E-3	103.28715E-9	-36.466286E+0	106.80128E-9	-39.721333E+0
-403.92154E-3	103.34700E-9	-38.500702E+0	106.81432E-9	-39.443783E+0
-396.07841E-3	103.39896E-9	-36.875690E+0	106.81363E-9	-39.618206E+0
-388.23527E-3	103.44395E-9	-39.053917E+0	106.84798E-9	-37.233833E+0
-380.39213E-3	103.49502E-9	-35.895130E+0	106.84057E-9	-38.555321E+0
-372.54900E-3	103.56219E-9	-37.208969E+0	106.84721E-9	-38.561737E+0
-364.70586E-3	103.59914E-9	-38.219082E+0	106.83899E-9	-38.269001E+0
-356.86272E-3	103.65698E-9	-36.309650E+0	106.86811E-9	-38.274464E+0
-349.01959E-3	103.68295E-9	-37.131927E+0	106.86990E-9	-37.614056E+0
-341.17645E-3	103.75385E-9	-35.805431E+0	106.88300E-9	-38.878025E+0
-333.33331E-3	103.78345E-9	-39.028034E+0	106.88594E-9	-37.003639E+0
-325.49018E-3	103.82645E-9	-34.669003E+0	106.90841E-9	-39.018867E+0
-317.64704E-3	103.88479E-9	-37.068428E+0	106.92726E-9	-36.791958E+0
-309.80390E-3	103.93864E-9	-35.638721E+0	106.92605E-9	-36.957851E+0
-301.96077E-3	103.98927E-9	-37.047237E+0	106.92860E-9	-36.438015E+0
-294.11763E-3	104.02698E-9	-34.583275E+0	106.92306E-9	-37.948296E+0
-286.27449E-3	104.08452E-9	-36.136795E+0	106.94055E-9	-36.690575E+0
-278.43136E-3	104.13361E-9	-35.762039E+0	106.92800E-9	-35.700897E+0
-270.58822E-3	104.18675E-9	-35.086800E+0	106.93609E-9	-36.320164E+0
-262.74508E-3	104.20659E-9	-35.770691E+0	106.93490E-9	-37.185524E+0
-254.90195E-3	104.26161E-9	-35.219311E+0	106.94825E-9	-36.273376E+0
-247.05875E-3	104.29446E-9	-36.697697E+0	106.94114E-9	-34.634346E+0
-239.21561E-3	104.33548E-9	-33.245476E+0	106.92882E-9	-36.796944E+0
-231.37248E-3	104.37519E-9	-36.614891E+0	106.94468E-9	-35.664619E+0
-223.52934E-3	104.42986E-9	-34.360760E+0	106.94993E-9	-36.557880E+0
-215.68620E-3	104.47200E-9	-36.121552E+0	106.95892E-9	-34.703674E+0
-207.84307E-3	104.50327E-9	-32.836201E+0	106.95342E-9	-36.513554E+0
-199.99993E-3	104.54558E-9	-35.818569E+0	106.98124E-9	-34.941738E+0
-192.15679E-3	104.58026E-9	-34.585114E+0	106.97372E-9	-35.682171E+0
-184.31365E-3	104.64226E-9	-33.811672E+0	106.98723E-9	-35.915958E+0
-176.47052E-3	104.65929E-9	-34.229935E+0	106.98021E-9	-35.265850E+0
-168.62738E-3	104.70789E-9	-34.459259E+0	107.00676E-9	-35.030972E+0
-160.78424E-3	104.73787E-9	-34.735004E+0	107.00796E-9	-34.454296E+0
-152.94111E-3	104.79312E-9	-32.588135E+0	107.00789E-9	-36.361908E+0
-145.09797E-3	104.81634E-9	-35.290535E+0	107.00667E-9	-33.881569E+0
-137.25483E-3	104.85805E-9	-33.204697E+0	107.01171E-9	-35.011349E+0
-129.41170E-3	104.88226E-9	-35.253078E+0	107.03673E-9	-33.939831E+0
-121.56856E-3	104.91679E-9	-32.150463E+0	107.02812E-9	-35.994789E+0
-113.72542E-3	104.94955E-9	-35.719742E+0	107.04079E-9	-33.271511E+0
-105.88229E-3	104.97044E-9	-32.458611E+0	107.03294E-9	-33.884796E+0
-98.039150E-3	105.01414E-9	-33.222248E+0	107.05199E-9	-34.007847E+0
-90.196013E-3	105.04173E-9	-33.082741E+0	107.04100E-9	-34.096024E+0
-82.352877E-3	105.08409E-9	-33.714314E+0	107.04004E-9	-33.581741E+0
-74.509740E-3	105.09360E-9	-33.262474E+0	107.03404E-9	-33.060608E+0
-66.666603E-3	105.14434E-9	-31.424067E+0	107.03442E-9	-33.998779E+0
-58.823466E-3	105.16182E-9	-34.591370E+0	107.02371E-9	-32.048141E+0
-50.980330E-3	105.21006E-9	-32.056618E+0	107.00514E-9	-34.200039E+0
-43.137193E-3	105.21820E-9	-33.549080E+0	107.01477E-9	-33.294037E+0
-35.294056E-3	105.26725E-9	-31.273357E+0	107.00921E-9	-33.966732E+0
-27.450919E-3	105.29017E-9	-34.807827E+0	107.01018E-9	-31.488148E+0
-19.607782E-3	105.31852E-9	-31.304792E+0	106.99883E-9	-34.074440E+0
-11.764646E-3	105.35173E-9	-32.906914E+0	107.03006E-9	-33.879749E+0
-3.9215088E-3	105.37283E-9	-31.817644E+0	107.01407E-9	-33.009247E+0
3.9216280E-3	105.42084E-9	-33.085098E+0	107.02988E-9	-31.849390E+0
11.764765E-3	105.42345E-9	-31.446270E+0	107.01277E-9	-32.826935E+0
19.607902E-3	105.46806E-9	-31.900723E+0	107.02441E-9	-33.972363E+0
27.451038E-3	105.47532E-9	-33.442547E+0	107.01411E-9	-31.426264E+0
35.294175E-3	105.52579E-9	-30.727900E+0	107.01783E-9	-32.910172E+0
43.137312E-3	105.53565E-9	-32.794506E+0	107.00617E-9	-31.766674E+0
50.980449E-3	105.55503E-9	-31.095684E+0	107.00918E-9	-34.177685E+0
58.823586E-3	105.57108E-9	-33.909176E+0	107.03447E-9	-31.326860E+0
66.666722E-3	105.61634E-9	-29.980782E+0	107.01969E-9	-33.251064E+0
74.509859E-3	105.63512E-9	-32.598564E+0	107.02724E-9	-31.429718E+0
82.352996E-3	105.64557E-9	-31.210041E+0	107.01520E-9	-31.662125E+0
90.196133E-3	105.67894E-9	-32.681858E+0	107.03128E-9	-31.814764E+0
98.039269E-3	105.69436E-9	-30.143942E+0	107.00913E-9	-32.018814E+0
105.88241E-3	105.73213E-9	-31.393665E+0	107.01180E-9	-32.244202E+0
113.72554E-3	105.73845E-9	-31.863438E+0	107.00249E-9	-30.259586E+0
121.56868E-3	105.77948E-9	-30.469986E+0	107.01753E-9	-32.920059E+0
129.41182E-3	105.78888E-9	-31.682339E+0	107.01108E-9	-31.888159E+0
137.25495E-3	105.83249E-9	-30.518616E+0	107.01853E-9	-33.291695E+0
145.09809E-3	105.82848E-9	-33.026142E+0	107.04909E-9	-30.002018E+0
152.94123E-3	105.86179E-9	-28.898342E+0	107.05077E-9	-33.507313E+0
160.78436E-3	105.88393E-9	-32.774845E+0	107.07388E-9	-31.213371E+0
168.62750E-3	105.90252E-9	-30.528755E+0	107.04520E-9	-31.630236E+0
176.47064E-3	105.91695E-9	-32.036289E+0	107.07373E-9	-30.671522E+0
184.31377E-3	105.92837E-9	-29.171713E+0	107.06114E-9	-31.392550E+0
192.15691E-3	105.96126E-9	-32.083107E+0	107.07879E-9	-31.389017E+0
200.00005E-3	105.94569E-9	-31.559170E+0	107.05578E-9	-30.317781E+0
207.84318E-3	105.98136E-9	-30.080647E+0	107.06699E-9	-31.981089E+0
215.68632E-3	105.97202E-9	-30.939735E+0	107.05821E-9	-29.766815E+0
223.52946E-3	106.02544E-9	-30.308500E+0	107.04706E-9	-31.043436E+0
231.37259E-3	106.02269E-9	-32.153839E+0	107.03501E-9	-29.860958E+0
239.21573E-3	106.03839E-9	-28.863241E+0	107.02554E-9	-32.898746E+0
247.05887E-3	106.05435E-9	-32.115780E+0	107.04064E-9	-29.947563E+0
254.90201E-3	106.08603E-9	-29.430393E+0	107.02389E-9	-30.597960E+0
262.74514E-3	106.09975E-9	-31.567253E+0	107.03117E-9	-30.366856E+0
270.58828E-3	106.10516E-9	-28.875032E+0	107.01324E-9	-32.099419E+0
278.43142E-3	106.13502E-9	-32.042118E+0	107.03237E-9	-30.023464E+0
286.27455E-3	106.14211E-9	-29.371265E+0	107.01055E-9	-29.382366E+0
294.11769E-3	106.17165E-9	-29.797741E+0	107.01674E-9	-31.601254E+0
301.96083E-3	106.15329E-9	-30.747635E+0	107.01246E-9	-30.228544E+0
309.80396E-3	106.19364E-9	-30.345852E+0	107.03083E-9	-31.380413E+0
317.64710E-3	106.20049E-9	-30.469826E+0	107.02222E-9	-28.880289E+0
325.49024E-3	106.23883E-9	-28.524355E+0	107.00673E-9	-31.569120E+0
333.33337E-3	106.22111E-9	-32.611217E+0	107.01547E-9	-28.997301E+0
341.17651E-3	106.25129E-9	-29.571678E+0	107.00218E-9	-31.329611E+0
349.01965E-3	106.25337E-9	-31.184855E+0	107.01663E-9	-29.766987E+0
356.86278E-3	106.26734E-9	-28.756239E+0	106.98349E-9	-30.594692E+0
364.70592E-3	106.27456E-9	-32.592796E+0	107.00087E-9	-29.280216E+0
372.54906E-3	106.26321E-9	-29.083780E+0	106.98469E-9	-30.055908E+0
380.39219E-3	106.29674E-9	-30.194195E+0	106.98808E-9	-31.270836E+0
388.23533E-3	106.28732E-9	-29.706413E+0	106.95970E-9	-29.662830E+0
396.07847E-3	106.31005E-9	-30.125504E+0	106.98017E-9	-30.179050E+0
403.92160E-3	106.30748E-9	-29.865623E+0	106.97644E-9	-29.436279E+0
411.76474E-3	106.34766E-9	-28.564186E+0	106.96223E-9	-31.792583E+0
419.60788E-3	106.34706E-9	-31.686050E+0	106.94843E-9	-28.714733E+0
427.45101E-3	106.37276E-9	-28.565123E+0	106.94423E-9	-30.871428E+0
435.29415E-3	106.35978E-9	-30.817066E+0	106.96166E-9	-29.301809E+0
443.13729E-3	106.39098E-9	-28.826214E+0	106.93901E-9	-31.536081E+0
450.98042E-3	106.39470E-9	-32.463558E+0	106.95459E-9	-29.216528E+0
458.82356E-3	106.38603E-9	-28.435154E+0	106.93361E-9	-30.306314E+0
466.66670E-3	106.41109E-9	-30.257191E+0	106.96081E-9	-30.266699E+0
474.50984E-3	106.40794E-9	-29.636555E+0	106.93141E-9	-29.007578E+0
482.35297E-3	106.43690E-9	-31.070547E+0	106.93487E-9	-30.611528E+0
490.19611E-3	106.40027E-9	-29.401226E+0	106.93062E-9	-30.010923E+0
498.03925E-3	106.42889E-9	-29.124693E+0	106.93643E-9	-31.099131E+0
505.88250E-3	106.41712E-9	-31.176723E+0	106.92825E-9	-27.880819E+0
513.72564E-3	106.44814E-9	-28.636292E+0	106.90982E-9	-31.295200E+0
521.56878E-3	106.44256E-9	-31.067835E+0	106.92666E-9	-30.052029E+0
529.41191E-3	106.47321E-9	-28.451967E+0	106.91249E-9	-30.783567E+0
537.25505E-3	106.48135E-9	-31.497477E+0	106.91824E-9	-28.094856E+0
545.09819E-3	106.50169E-9	-27.820978E+0	106.88879E-9	-31.018078E+0
552.94132E-3	106.50661E-9	-31.261837E+0	106.91337E-9	-30.366022E+0
560.78446E-3	106.51565E-9	-29.473291E+0	106.88431E-9	-29.532532E+0
568.62760E-3	106.54301E-9	-30.444132E+0	106.88828E-9	-30.026625E+0
576.47073E-3	106.53496E-9	-28.765047E+0	106.86050E-9	-29.370054E+0
584.31387E-3	106.55926E-9	-30.036289E+0	106.86399E-9	-31.188826E+0
592.15701E-3	106.55064E-9	-31.129129E+0	106.85183E-9	-28.400309E+0
600.00014E-3	106.58147E-9	-28.893337E+0	106.83183E-9	-31.637249E+0
607.84328E-3	106.55526E-9	-30.921646E+0	106.83165E-9	-28.835875E+0
615.68642E-3	106.57563E-9	-29.421610E+0	106.82107E-9	-31.077353E+0
623.52955E-3	106.56500E-9	-32.248142E+0	106.83640E-9	-28.863552E+0
631.37269E-3	106.59151E-9	-27.727699E+0	106.79918E-9	-31.496408E+0
639.21583E-3	106.59652E-9	-31.946339E+0	106.81643E-9	-29.839808E+0
647.05896E-3	106.58751E-9	-29.295742E+0	106.79466E-9	-29.117088E+0
654.90210E-3	106.60667E-9	-31.355461E+0	106.81464E-9	-30.302694E+0
662.74524E-3	106.59549E-9	-28.816431E+0	106.78367E-9	-30.314688E+0
670.58837E-3	106.61976E-9	-30.710114E+0	106.78497E-9	-30.893919E+0
678.43151E-3	106.58949E-9	-30.951374E+0	106.77176E-9	-28.385550E+0
686.27465E-3	106.61999E-9	-28.611256E+0	106.77002E-9	-31.547087E+0
694.11778E-3	106.59615E-9	-31.481344E+0	106.75219E-9	-29.365084E+0
701.96092E-3	106.61771E-9	-29.748882E+0	106.72615E-9	-31.207413E+0
709.80406E-3	106.59519E-9	-32.073120E+0	106.73860E-9	-28.706362E+0
717.64719E-3	106.61068E-9	-28.019938E+0	106.70936E-9	-31.178236E+0
725.49033E-3	106.61152E-9	-32.545895E+0	106.70391E-9	-29.676361E+0
733.33347E-3	106.61935E-9	-29.766363E+0	106.66708E-9	-30.739952E+0
741.17661E-3	106.62412E-9	-31.363665E+0	106.70005E-9	-31.021023E+0
749.01974E-3	106.62259E-9	-28.629406E+0	106.68065E-9	-30.050220E+0
756.86288E-3	106.65682E-9	-31.610918E+0	106.68678E-9	-31.091482E+0
764.70602E-3	106.62564E-9	-30.464430E+0	106.67735E-9	-29.387815E+0
772.54915E-3	106.64448E-9	-30.289482E+0	106.69801E-9	-33.025959E+0
780.39229E-3	106.60643E-9	-31.347015E+0	106.69339E-9	-29.498337E+0
788.23543E-3	106.64838E-9	-29.735992E+0	106.69098E-9	-31.615185E+0
796.07856E-3	106.61950E-9	-32.399323E+0	106.70252E-9	-29.431393E+0
803.92170E-3	106.63177E-9	-28.958195E+0	106.68423E-9	-32.997364E+0
811.76484E-3	106.61131E-9	-33.918434E+0	106.70281E-9	-29.427961E+0
819.60797E-3	106.63135E-9	-29.098555E+0	106.66305E-9	-30.348251E+0
827.45111E-3	106.62951E-9	-32.204098E+0	106.67286E-9	-30.512440E+0
835.29425E-3	106.61088E-9	-29.836496E+0	106.64426E-9	-31.429741E+0
843.13738E-3	106.63774E-9	-32.636997E+0	106.67507E-9	-31.001802E+0
850.98052E-3	106.62749E-9	-30.220015E+0	106.64404E-9	-29.956877E+0
858.82366E-3	106.64454E-9	-30.550695E+0	106.64916E-9	-33.011894E+0
866.66679E-3	106.61037E-9	-31.663721E+0	106.64514E-9	-29.590612E+0
874.50993E-3	106.64797E-9	-31.040688E+0	106.64596E-9	-33.127502E+0
882.35307E-3	106.62350E-9	-32.232071E+0	106.64853E-9	-30.083073E+0
890.19620E-3	106.65030E-9	-29.605610E+0	106.62157E-9	-33.500332E+0
898.03934E-3	106.61625E-9	-34.119785E+0	106.63816E-9	-29.443785E+0
905.88248E-3	106.64154E-9	-29.870806E+0	106.61674E-9	-32.425346E+0
913.72561E-3	106.63013E-9	-33.571239E+0	106.63527E-9	-31.708731E+0
921.56875E-3	106.61385E-9	-30.192505E+0	106.60246E-9	-32.091805E+0
929.41189E-3	106.62382E-9	-33.796734E+0	106.64042E-9	-30.946714E+0
937.25502E-3	106.60694E-9	-30.341522E+0	106.62365E-9	-31.174644E+0
945.09816E-3	106.63012E-9	-32.299213E+0	106.64280E-9	-33.886971E+0
952.94130E-3	106.59829E-9	-32.425640E+0	106.61962E-9	-30.483850E+0
960.78444E-3	106.62404E-9	-31.260586E+0	106.64213E-9	-33.640347E+0
968.62757E-3	106.60829E-9	-31.631731E+0	106.65073E-9	-30.548784E+0
976.47071E-3	106.64375E-9	-31.074884E+0	106.64018E-9	-34.883045E+0
984.31385E-3	106.62285E-9	-33.991501E+0	106.64638E-9	-30.088551E+0
992.15698E-3	106.64434E-9	-30.351744E+0	106.63097E-9	-34.075378E+0
1.0000000E+0	106.63224E-9	-33.425968E+0	106.65039E-9	-31.405233E+0
